digraph Tree {
node [shape=box] ;
0 [label="z_variance <= 0.071\nentropy = 1.0\nsamples = 2797\nvalue = [1368, 1429]"] ;
1 [label="dominant frequencies <= 193.883\nentropy = 0.028\nsamples = 1410\nvalue = [4, 1406]"] ;
0 -> 1 [labeldistance=2.5, labelangle=45, headlabel="True"] ;
2 [label="entropy = 0.0\nsamples = 1406\nvalue = [0, 1406]"] ;
1 -> 2 ;
3 [label="entropy = 0.0\nsamples = 4\nvalue = [4, 0]"] ;
1 -> 3 ;
4 [label="z_variance <= 0.608\nentropy = 0.122\nsamples = 1387\nvalue = [1364, 23]"] ;
0 -> 4 [labeldistance=2.5, labelangle=-45, headlabel="False"] ;
5 [label="dominant frequencies <= 196.253\nentropy = 0.518\nsamples = 155\nvalue = [137, 18]"] ;
4 -> 5 ;
6 [label="entropy = 0.689\nsamples = 87\nvalue = [71, 16]"] ;
5 -> 6 ;
7 [label="entropy = 0.191\nsamples = 68\nvalue = [66, 2]"] ;
5 -> 7 ;
8 [label="z_variance <= 12.41\nentropy = 0.038\nsamples = 1232\nvalue = [1227, 5]"] ;
4 -> 8 ;
9 [label="entropy = 0.017\nsamples = 1227\nvalue = [1225, 2]"] ;
8 -> 9 ;
10 [label="entropy = 0.971\nsamples = 5\nvalue = [2, 3]"] ;
8 -> 10 ;
}